digraph Tree {
node [shape=box] ;
0 [label="X[11] <= 7.275\nentropy = 1.848\nsamples = 120358\nvalue = [19748, 27982, 18306, 54322]"] ;
1 [label="X[11] <= 6.835\nentropy = 1.758\nsamples = 9999\nvalue = [4726, 1800, 2664, 809]"] ;
0 -> 1 [labeldistance=2.5, labelangle=45, headlabel="True"] ;
2 [label="X[6] <= 4.75\nentropy = 1.883\nsamples = 7154\nvalue = [2185, 1513, 2648, 808]"] ;
1 -> 2 ;
3 [label="X[11] <= 5.945\nentropy = 1.853\nsamples = 5113\nvalue = [2183, 1281, 1069, 580]"] ;
2 -> 3 ;
4 [label="X[6] <= 4.25\nentropy = 1.603\nsamples = 2411\nvalue = [178, 1078, 976, 179]"] ;
3 -> 4 ;
5 [label="entropy = 1.642\nsamples = 1932\nvalue = [178, 1011, 564, 179]"] ;
4 -> 5 ;
6 [label="entropy = 0.584\nsamples = 479\nvalue = [0, 67, 412, 0]"] ;
4 -> 6 ;
7 [label="X[7] <= 0.75\nentropy = 1.176\nsamples = 2702\nvalue = [2005, 203, 93, 401]"] ;
3 -> 7 ;
8 [label="entropy = 0.923\nsamples = 2409\nvalue = [1916, 151, 3, 339]"] ;
7 -> 8 ;
9 [label="entropy = 1.962\nsamples = 293\nvalue = [89, 52, 90, 62]"] ;
7 -> 9 ;
10 [label="X[6] <= 5.25\nentropy = 1.006\nsamples = 2041\nvalue = [2, 232, 1579, 228]"] ;
2 -> 10 ;
11 [label="X[11] <= 6.74\nentropy = 1.369\nsamples = 1052\nvalue = [2, 182, 640, 228]"] ;
10 -> 11 ;
12 [label="entropy = 0.857\nsamples = 698\nvalue = [2, 176, 519, 1]"] ;
11 -> 12 ;
13 [label="entropy = 1.04\nsamples = 354\nvalue = [0, 6, 121, 227]"] ;
11 -> 13 ;
14 [label="X[11] <= 6.805\nentropy = 0.289\nsamples = 989\nvalue = [0, 50, 939, 0]"] ;
10 -> 14 ;
15 [label="entropy = 0.228\nsamples = 975\nvalue = [0, 36, 939, 0]"] ;
14 -> 15 ;
16 [label="entropy = 0.0\nsamples = 14\nvalue = [0, 14, 0, 0]"] ;
14 -> 16 ;
17 [label="X[6] <= 5.25\nentropy = 0.526\nsamples = 2845\nvalue = [2541, 287, 16, 1]"] ;
1 -> 17 ;
18 [label="X[11] <= 6.975\nentropy = 0.292\nsamples = 2671\nvalue = [2538, 131, 1, 1]"] ;
17 -> 18 ;
19 [label="X[11] <= 6.94\nentropy = 0.095\nsamples = 2052\nvalue = [2027, 25, 0, 0]"] ;
18 -> 19 ;
20 [label="entropy = 0.394\nsamples = 322\nvalue = [297, 25, 0, 0]"] ;
19 -> 20 ;
21 [label="entropy = 0.0\nsamples = 1730\nvalue = [1730, 0, 0, 0]"] ;
19 -> 21 ;
22 [label="X[11] <= 7.245\nentropy = 0.694\nsamples = 619\nvalue = [511, 106, 1, 1]"] ;
18 -> 22 ;
23 [label="entropy = 0.983\nsamples = 248\nvalue = [143, 105, 0, 0]"] ;
22 -> 23 ;
24 [label="entropy = 0.081\nsamples = 371\nvalue = [368, 1, 1, 1]"] ;
22 -> 24 ;
25 [label="X[8] <= 0.25\nentropy = 0.547\nsamples = 174\nvalue = [3, 156, 15, 0]"] ;
17 -> 25 ;
26 [label="X[11] <= 7.005\nentropy = 0.913\nsamples = 19\nvalue = [3, 1, 15, 0]"] ;
25 -> 26 ;
27 [label="entropy = 0.0\nsamples = 15\nvalue = [0, 0, 15, 0]"] ;
26 -> 27 ;
28 [label="entropy = 0.811\nsamples = 4\nvalue = [3, 1, 0, 0]"] ;
26 -> 28 ;
29 [label="entropy = 0.0\nsamples = 155\nvalue = [0, 155, 0, 0]"] ;
25 -> 29 ;
30 [label="X[11] <= 9.975\nentropy = 1.79\nsamples = 110359\nvalue = [15022, 26182, 15642, 53513]"] ;
0 -> 30 [labeldistance=2.5, labelangle=-45, headlabel="False"] ;
31 [label="X[6] <= 7.65\nentropy = 1.134\nsamples = 27296\nvalue = [1618, 853, 4385, 20440]"] ;
30 -> 31 ;
32 [label="X[11] <= 8.815\nentropy = 1.009\nsamples = 25351\nvalue = [1618, 709, 2798, 20226]"] ;
31 -> 32 ;
33 [label="X[6] <= 6.25\nentropy = 0.985\nsamples = 15920\nvalue = [341, 508, 2631, 12440]"] ;
32 -> 33 ;
34 [label="entropy = 0.621\nsamples = 11807\nvalue = [341, 279, 562, 10625]"] ;
33 -> 34 ;
35 [label="entropy = 1.251\nsamples = 4113\nvalue = [0, 229, 2069, 1815]"] ;
33 -> 35 ;
36 [label="X[11] <= 8.845\nentropy = 0.84\nsamples = 9431\nvalue = [1277, 201, 167, 7786]"] ;
32 -> 36 ;
37 [label="entropy = 0.037\nsamples = 512\nvalue = [510, 2, 0, 0]"] ;
36 -> 37 ;
38 [label="entropy = 0.705\nsamples = 8919\nvalue = [767, 199, 167, 7786]"] ;
36 -> 38 ;
39 [label="X[6] <= 8.25\nentropy = 0.868\nsamples = 1945\nvalue = [0, 144, 1587, 214]"] ;
31 -> 39 ;
40 [label="X[11] <= 9.305\nentropy = 1.139\nsamples = 1040\nvalue = [0, 94, 732, 214]"] ;
39 -> 40 ;
41 [label="entropy = 0.453\nsamples = 643\nvalue = [0, 42, 592, 9]"] ;
40 -> 41 ;
42 [label="entropy = 1.407\nsamples = 397\nvalue = [0, 52, 140, 205]"] ;
40 -> 42 ;
43 [label="X[11] <= 9.805\nentropy = 0.308\nsamples = 905\nvalue = [0, 50, 855, 0]"] ;
39 -> 43 ;
44 [label="entropy = 0.192\nsamples = 881\nvalue = [0, 26, 855, 0]"] ;
43 -> 44 ;
45 [label="entropy = 0.0\nsamples = 24\nvalue = [0, 24, 0, 0]"] ;
43 -> 45 ;
46 [label="X[11] <= 12.555\nentropy = 1.867\nsamples = 83063\nvalue = [13404, 25329, 11257, 33073]"] ;
30 -> 46 ;
47 [label="X[6] <= 9.95\nentropy = 1.613\nsamples = 20812\nvalue = [6557, 10323, 3188, 744]"] ;
46 -> 47 ;
48 [label="X[11] <= 12.055\nentropy = 1.443\nsamples = 18147\nvalue = [6531, 9784, 1114, 718]"] ;
47 -> 48 ;
49 [label="entropy = 1.379\nsamples = 14861\nvalue = [3832, 9376, 1083, 570]"] ;
48 -> 49 ;
50 [label="entropy = 0.872\nsamples = 3286\nvalue = [2699, 408, 31, 148]"] ;
48 -> 50 ;
51 [label="X[11] <= 12.305\nentropy = 0.878\nsamples = 2665\nvalue = [26, 539, 2074, 26]"] ;
47 -> 51 ;
52 [label="entropy = 0.746\nsamples = 2541\nvalue = [0, 442, 2073, 26]"] ;
51 -> 52 ;
53 [label="entropy = 0.806\nsamples = 124\nvalue = [26, 97, 1, 0]"] ;
51 -> 53 ;
54 [label="X[6] <= 11.92\nentropy = 1.718\nsamples = 62251\nvalue = [6847, 15006, 8069, 32329]"] ;
46 -> 54 ;
55 [label="X[11] <= 16.28\nentropy = 1.395\nsamples = 20543\nvalue = [2792, 4025, 513, 13213]"] ;
54 -> 55 ;
56 [label="entropy = 1.268\nsamples = 16862\nvalue = [1948, 2452, 506, 11956]"] ;
55 -> 56 ;
57 [label="entropy = 1.558\nsamples = 3681\nvalue = [844, 1573, 7, 1257]"] ;
55 -> 57 ;
58 [label="X[11] <= 15.305\nentropy = 1.796\nsamples = 41708\nvalue = [4055, 10981, 7556, 19116]"] ;
54 -> 58 ;
59 [label="entropy = 1.067\nsamples = 3066\nvalue = [0, 614, 2235, 217]"] ;
58 -> 59 ;
60 [label="entropy = 1.749\nsamples = 38642\nvalue = [4055, 10367, 5321, 18899]"] ;
58 -> 60 ;
}
